0.000581803
-0.0040712
-0.01312
0.00162041
0.00549156
0.000767806
0.00713879
-0.000181489
0.00327148
0.00967892
-0.00827451
-0.00711813
0.000478455
0.00658454
0.00148136
-0.00137233
-0.00256103
-0.00483674
-0.00773097
0.00517724
0.00589953
0.00370746
-0.000896629
-0.00527878
0.00695458
-0.00631847
-0.00713469
-0.00367894
0.00308904
0.0202807
0.00796371
-0.00110132
0.00447482
0.00170373
0.00425718
-0.0025551
0.00134305
0.000854974
-0.0048266
-0.00703784
0.0012515
-0.00517979
-0.00952405
0.00414297
0.00520066
-0.00464593
-0.00344415
0.000156256
-0.00213102
0.00323997
-0.00115881
-0.0009808
-0.000131655
-0.0052616
0.00749263
-0.000912632
-0.00192799
-0.00135527
-0.000161046
-0.00211149
0.00284937
0.00223899
-0.0022362
-0.00237427
-0.00424383
0.000123013
-0.00400895
-0.0064015
0.0090969
0.000261155
0.000602396
-0.00104565
0.0162622
-0.00409812
0.00633173
0.00858987
0.00690503
-0.00442909
0.00430975
0.00138778
0.00800772
-0.00104666
0.00166803
-0.00854008
0.0014616
-0.00230188
-0.001815
-0.00176782
-0.00351369
-0.000699227
0.000177402
-0.00369831
0.00477503
-0.00584728
-8.17881e-05
0.00987342
0.00214981
-0.000795438
-0.00667324
0.00587749
0.00269086
-0.00851965
-0.00205397
-0.00105817
0.00148133
0.00288485
-0.00610968
0.0066071
0.0114343
-0.00386681
-0.00215729
0.00137272
-0.000626536
0.000786241
-0.00345906
0.00501074
0.0016304
-0.0025604
0.00381676
0.00130367
-0.00451693
-0.00386533
0.00066569
-0.00254236
0.00224187
0.00342886
0.00387055
0.00306483
0.000844223
-0.00574182
-0.00267173
0.00894289
-0.0018608
0.00435395
-3.95847e-05
0.00663207
-0.00746229
0.00050209
-0.00185796
-0.00062522
0.00698818
0.0021653
0.00352942
-0.00250803
0.00427395
-0.00284009
0.00490191
-0.00265754
-0.00142144
-1.59964e-05
-0.00384468
-2.05478e-05
-0.010838
-0.00368044
0.0026825
-0.00569724
0.00265166
-0.00430625
0.00194812
0.0073611
0.00123133
-0.00341046
-0.000351768
0.00656615
0.0121721
0.00215775
0.00830215
-0.000322941
0.00111409
0.00288983
0.011186
0.00246913
-0.0102954
0.00793466
0.00340959
-0.00815034
0.00249682
-0.00433642
0.0118072
0.00387598
0.000543
0.000186471
-0.00633902
0.00595581
0.0110052
0.0026927
0.00230312
0.00287815
-0.00139195
-0.000817326
-0.00335281
-0.00027224
-0.00450223
-6.54819e-05
0.00399709
0.000996689
-0.00312495
0.0014889
0.00559456
-0.00238898
-0.000444135
-0.00487718
0.00100326
0.00341875
-0.00635716
0.00182919
0.00779075
0.00143608
0.00632741
0.000890503
0.0020036
0.0022092
0.00841605
0.0087857
-0.00254176
0.0038651
0.00470482
-0.0092967
-0.00362877
-0.00203012
0.00056143
-0.000289699
0.0017696
0.010858
0.00576546
0.00477674
0.00364957
-0.0055184
-6.67122e-06
0.000667559
0.00966098
0.000693359
0.000483317
0.00269505
0.00393958
-0.00190885
-0.00300153
0.00255982
-0.00282874
-0.000736512
0.007316
-0.00227897
0.00121354
0.00256437
0.00440188
-0.00168911
-0.000378449
0.00552958
0.00989304
0.00699228
0.00459527
-0.00191128
-0.00884164
-0.00140037
0.00870687
0.000238964
0.00478357
-0.00525283
0.00524903
0.00524133
-0.00116523
0.00145108
-0.00585977
0.001209
-0.000191129
-0.00245711
-0.00570826
0.000310651
-0.00453372
0.00280278
0.00573175
0.00373222
-0.00160103
0.00272012
-0.00687509
0.0050232
-0.000730011
0.00795989
-0.00160774
0.00286007
-0.00026766
0.000905188
0.00401098
-0.00275182
-0.00184895
-0.00147024
0.0109289
0.00432019
0.00436382
0.00297309
0.00181985
0.00210239
-0.00206217
0.00164274
0.0101259
0.00795836
-0.00458214
-0.00567243
-0.000280937
0.00433252
-0.00195373
0.0181833
-0.00144378
-0.00336551
-0.00466858
0.00248755
0.00449414
0.00498461
-0.00485025
-0.00793426
-0.00268133
-0.00178319
-0.00248587
-0.00646401
0.00112389
-0.00476206
-0.00309751
0.00424248
0.0147573
0.00825292
9.0921e-05
-0.000847982
-0.00525117
-0.0041426
0.00104784
0.00293905
0.0115771
0.00870122
-0.00175751
-0.00717769
0.00501204
0.0035895
0.000463563
-0.00292511
-0.000589083
-0.00337644
0.012787
-0.00107779
0.00993979
-0.000711298
-0.00333205
-0.000164825
0.00742388
-0.000438511
-0.00447911
-0.00197653
-0.00254066
0.00366062
0.000271234
0.00646391
-0.00233886
0.00117908
0.00368928
-0.000480709
-0.00396694
-0.00375821
0.00273576
0.0083259
-0.00269364
-0.00538982
-0.000836204
0.00197879
0.00323965
0.00515486
0.0105335
-0.00363512
0.000838163
-0.000766753
-0.00265268
-0.000210068
0.00975867
-0.000237177
0.0101367
0.00507906
-0.00174639
0.00307135
-0.00259313
0.00801623
0.00174687
-0.00723253
0.0015366
-0.00461482
-0.00566293
0.000656528
-0.000890607
-0.00127228
0.00370305
0.00235466
0.000296811
0.0145487
-0.0022471
0.00289594
-0.00335112
-0.00324897
-0.00333537
-0.00340835
-0.00944024
2.52134e-05
0.0111299
0.00518169
-0.0018912
0.00656989
-0.00267798
0.000229644
-0.00475645
0.00466401
-0.00332839
0.00305064
0.00360431
0.00262222
-0.00300256
-0.0122719
0.00462978
-0.00177867
-0.00378404
-0.0032087
-0.0018737
-0.00172725
-0.00589999
0.00866641
0.00336855
0.000731761
-0.0036478
-0.00138072
-0.00522157
-0.00152946
0.00486096
-0.00435485
0.00652198
0.000135633
-0.00240761
-0.00376643
-0.00338104
-0.00578417
0.000622066
0.00986614
0.00225966
0.00626354
-0.00781573
-0.00268225
0.00826771
-6.0376e-05
0.00147594
-0.00852492
0.00173642
0.00281153
0.0176148
-0.00233198
-0.00148254
0.0101198
-0.00605604
-0.00348337
0.0019885
-0.000141824
0.00324325
-0.00140104
0.00642732
0.00070235
-0.00417718
-0.0039855
-0.00865077
0.00332663
0.00285767
-0.011841
-0.00139443
0.00938995
0.000782723
-0.000366513
-0.00618671
0.000161073
0.0022127
-0.00514037
-0.00602102
-0.000861704
0.00112421
0.0123114
-0.00145237
0.00792867
0.00437618
-0.00665478
-0.00211431
-0.00900055
0.0058534
-0.000746857
0.00147118
-0.001736
0.00498301
0.00013283
-0.000657768
0.00260119
-0.00367473
-0.000767108
-0.00908145
0.000153345
0.0087908
-0.00894683
0.00245206
-0.00106343
0.000151906
-0.00627906
